digraph Tree {
node [shape=box, style="filled, rounded", color="black", fontname=helvetica] ;
edge [fontname=helvetica] ;
0 [label=<hsv_cervix_v_mean &le; 60.943<br/>gini = 0.386<br/>samples = 287<br/>value = [75, 212]<br/>class = 1>, fillcolor="#399de5a5"] ;
1 [label=<rgb_total_b_mean_plus_std &le; 69.655<br/>gini = 0.47<br/>samples = 45<br/>value = [28, 17]<br/>class = 0>, fillcolor="#e5813964"] ;
0 -> 1 [labeldistance=2.5, labelangle=45, headlabel="True"] ;
2 [label=<rgb_cervix_g_mean_minus_std &le; 40.19<br/>gini = 0.172<br/>samples = 21<br/>value = [19, 2]<br/>class = 0>, fillcolor="#e58139e4"] ;
1 -> 2 ;
3 [label=<fit_ellipse_goodness &le; 359.942<br/>gini = 0.095<br/>samples = 20<br/>value = [19, 1]<br/>class = 0>, fillcolor="#e58139f2"] ;
2 -> 3 ;
4 [label=<gini = 0.0<br/>samples = 19<br/>value = [19, 0]<br/>class = 0>, fillcolor="#e58139ff"] ;
3 -> 4 ;
5 [label=<gini = 0.0<br/>samples = 1<br/>value = [0, 1]<br/>class = 1>, fillcolor="#399de5ff"] ;
3 -> 5 ;
6 [label=<gini = 0.0<br/>samples = 1<br/>value = [0, 1]<br/>class = 1>, fillcolor="#399de5ff"] ;
2 -> 6 ;
7 [label=<rgb_total_r_std &le; 58.187<br/>gini = 0.469<br/>samples = 24<br/>value = [9, 15]<br/>class = 1>, fillcolor="#399de566"] ;
1 -> 7 ;
8 [label=<rgb_cervix_b_mean_minus_std &le; 10.687<br/>gini = 0.153<br/>samples = 12<br/>value = [1, 11]<br/>class = 1>, fillcolor="#399de5e8"] ;
7 -> 8 ;
9 [label=<gini = 0.0<br/>samples = 10<br/>value = [0, 10]<br/>class = 1>, fillcolor="#399de5ff"] ;
8 -> 9 ;
10 [label=<dist_to_center_cervix &le; 0.372<br/>gini = 0.5<br/>samples = 2<br/>value = [1, 1]<br/>class = 0>, fillcolor="#e5813900"] ;
8 -> 10 ;
11 [label=<gini = 0.0<br/>samples = 1<br/>value = [0, 1]<br/>class = 1>, fillcolor="#399de5ff"] ;
10 -> 11 ;
12 [label=<gini = 0.0<br/>samples = 1<br/>value = [1, 0]<br/>class = 0>, fillcolor="#e58139ff"] ;
10 -> 12 ;
13 [label=<cervix_specularities_area &le; 0.013<br/>gini = 0.444<br/>samples = 12<br/>value = [8, 4]<br/>class = 0>, fillcolor="#e581397f"] ;
7 -> 13 ;
14 [label=<gini = 0.0<br/>samples = 7<br/>value = [7, 0]<br/>class = 0>, fillcolor="#e58139ff"] ;
13 -> 14 ;
15 [label=<os_specularities_area &le; 0.0<br/>gini = 0.32<br/>samples = 5<br/>value = [1, 4]<br/>class = 1>, fillcolor="#399de5bf"] ;
13 -> 15 ;
16 [label=<gini = 0.0<br/>samples = 1<br/>value = [1, 0]<br/>class = 0>, fillcolor="#e58139ff"] ;
15 -> 16 ;
17 [label=<gini = 0.0<br/>samples = 4<br/>value = [0, 4]<br/>class = 1>, fillcolor="#399de5ff"] ;
15 -> 17 ;
18 [label=<speculum_area &le; 0.557<br/>gini = 0.313<br/>samples = 242<br/>value = [47, 195]<br/>class = 1>, fillcolor="#399de5c2"] ;
0 -> 18 [labeldistance=2.5, labelangle=-45, headlabel="False"] ;
19 [label=<cervix_artifacts_area &le; 0.175<br/>gini = 0.277<br/>samples = 229<br/>value = [38, 191]<br/>class = 1>, fillcolor="#399de5cc"] ;
18 -> 19 ;
20 [label=<rgb_total_r_mean_minus_std &le; 29.956<br/>gini = 0.248<br/>samples = 221<br/>value = [32, 189]<br/>class = 1>, fillcolor="#399de5d4"] ;
19 -> 20 ;
21 [label=<speculum_artifacts_area &le; 0.641<br/>gini = 0.11<br/>samples = 120<br/>value = [7, 113]<br/>class = 1>, fillcolor="#399de5ef"] ;
20 -> 21 ;
22 [label=<rgb_total_g_mean &le; 7.102<br/>gini = 0.096<br/>samples = 119<br/>value = [6, 113]<br/>class = 1>, fillcolor="#399de5f1"] ;
21 -> 22 ;
23 [label=<gini = 0.0<br/>samples = 1<br/>value = [1, 0]<br/>class = 0>, fillcolor="#e58139ff"] ;
22 -> 23 ;
24 [label=<rgb_cervix_g_std &le; 79.011<br/>gini = 0.081<br/>samples = 118<br/>value = [5, 113]<br/>class = 1>, fillcolor="#399de5f4"] ;
22 -> 24 ;
25 [label=<rgb_cervix_b_mean_minus_std &le; 154.782<br/>gini = 0.066<br/>samples = 117<br/>value = [4, 113]<br/>class = 1>, fillcolor="#399de5f6"] ;
24 -> 25 ;
26 [label=<rgb_total_g_mean_minus_std &le; 72.405<br/>gini = 0.051<br/>samples = 115<br/>value = [3, 112]<br/>class = 1>, fillcolor="#399de5f8"] ;
25 -> 26 ;
27 [label=<hsv_cervix_s_std &le; 46.889<br/>gini = 0.035<br/>samples = 112<br/>value = [2, 110]<br/>class = 1>, fillcolor="#399de5fa"] ;
26 -> 27 ;
28 [label=<gini = 0.0<br/>samples = 93<br/>value = [0, 93]<br/>class = 1>, fillcolor="#399de5ff"] ;
27 -> 28 ;
29 [label=<cervix_area &le; 0.573<br/>gini = 0.188<br/>samples = 19<br/>value = [2, 17]<br/>class = 1>, fillcolor="#399de5e1"] ;
27 -> 29 ;
30 [label=<gini = 0.0<br/>samples = 16<br/>value = [0, 16]<br/>class = 1>, fillcolor="#399de5ff"] ;
29 -> 30 ;
31 [label=<hsv_cervix_h_mean &le; 4.095<br/>gini = 0.444<br/>samples = 3<br/>value = [2, 1]<br/>class = 0>, fillcolor="#e581397f"] ;
29 -> 31 ;
32 [label=<gini = 0.0<br/>samples = 2<br/>value = [2, 0]<br/>class = 0>, fillcolor="#e58139ff"] ;
31 -> 32 ;
33 [label=<gini = 0.0<br/>samples = 1<br/>value = [0, 1]<br/>class = 1>, fillcolor="#399de5ff"] ;
31 -> 33 ;
34 [label=<rgb_cervix_b_std &le; 17.971<br/>gini = 0.444<br/>samples = 3<br/>value = [1, 2]<br/>class = 1>, fillcolor="#399de57f"] ;
26 -> 34 ;
35 [label=<gini = 0.0<br/>samples = 2<br/>value = [0, 2]<br/>class = 1>, fillcolor="#399de5ff"] ;
34 -> 35 ;
36 [label=<gini = 0.0<br/>samples = 1<br/>value = [1, 0]<br/>class = 0>, fillcolor="#e58139ff"] ;
34 -> 36 ;
37 [label=<dist_to_center_cervix &le; 0.363<br/>gini = 0.5<br/>samples = 2<br/>value = [1, 1]<br/>class = 0>, fillcolor="#e5813900"] ;
25 -> 37 ;
38 [label=<gini = 0.0<br/>samples = 1<br/>value = [1, 0]<br/>class = 0>, fillcolor="#e58139ff"] ;
37 -> 38 ;
39 [label=<gini = 0.0<br/>samples = 1<br/>value = [0, 1]<br/>class = 1>, fillcolor="#399de5ff"] ;
37 -> 39 ;
40 [label=<gini = 0.0<br/>samples = 1<br/>value = [1, 0]<br/>class = 0>, fillcolor="#e58139ff"] ;
24 -> 40 ;
41 [label=<gini = 0.0<br/>samples = 1<br/>value = [1, 0]<br/>class = 0>, fillcolor="#e58139ff"] ;
21 -> 41 ;
42 [label=<dist_to_center_os &le; 0.639<br/>gini = 0.373<br/>samples = 101<br/>value = [25, 76]<br/>class = 1>, fillcolor="#399de5ab"] ;
20 -> 42 ;
43 [label=<rgb_total_g_mean_minus_std &le; 45.193<br/>gini = 0.33<br/>samples = 96<br/>value = [20, 76]<br/>class = 1>, fillcolor="#399de5bc"] ;
42 -> 43 ;
44 [label=<rgb_total_b_std &le; 67.781<br/>gini = 0.405<br/>samples = 71<br/>value = [20, 51]<br/>class = 1>, fillcolor="#399de59b"] ;
43 -> 44 ;
45 [label=<rgb_total_b_mean_plus_std &le; 175.224<br/>gini = 0.497<br/>samples = 39<br/>value = [18, 21]<br/>class = 1>, fillcolor="#399de524"] ;
44 -> 45 ;
46 [label=<rgb_total_r_mean_minus_std &le; 37.604<br/>gini = 0.278<br/>samples = 18<br/>value = [3, 15]<br/>class = 1>, fillcolor="#399de5cc"] ;
45 -> 46 ;
47 [label=<rgb_total_b_mean_minus_std &le; 43.746<br/>gini = 0.375<br/>samples = 4<br/>value = [3, 1]<br/>class = 0>, fillcolor="#e58139aa"] ;
46 -> 47 ;
48 [label=<gini = 0.0<br/>samples = 1<br/>value = [0, 1]<br/>class = 1>, fillcolor="#399de5ff"] ;
47 -> 48 ;
49 [label=<gini = 0.0<br/>samples = 3<br/>value = [3, 0]<br/>class = 0>, fillcolor="#e58139ff"] ;
47 -> 49 ;
50 [label=<gini = 0.0<br/>samples = 14<br/>value = [0, 14]<br/>class = 1>, fillcolor="#399de5ff"] ;
46 -> 50 ;
51 [label=<walls_area &le; 0.094<br/>gini = 0.408<br/>samples = 21<br/>value = [15, 6]<br/>class = 0>, fillcolor="#e5813999"] ;
45 -> 51 ;
52 [label=<os_area &le; 0.007<br/>gini = 0.408<br/>samples = 7<br/>value = [2, 5]<br/>class = 1>, fillcolor="#399de599"] ;
51 -> 52 ;
53 [label=<gini = 0.0<br/>samples = 2<br/>value = [2, 0]<br/>class = 0>, fillcolor="#e58139ff"] ;
52 -> 53 ;
54 [label=<gini = 0.0<br/>samples = 5<br/>value = [0, 5]<br/>class = 1>, fillcolor="#399de5ff"] ;
52 -> 54 ;
55 [label=<hsv_total_v_std &le; 53.412<br/>gini = 0.133<br/>samples = 14<br/>value = [13, 1]<br/>class = 0>, fillcolor="#e58139eb"] ;
51 -> 55 ;
56 [label=<gini = 0.0<br/>samples = 1<br/>value = [0, 1]<br/>class = 1>, fillcolor="#399de5ff"] ;
55 -> 56 ;
57 [label=<gini = 0.0<br/>samples = 13<br/>value = [13, 0]<br/>class = 0>, fillcolor="#e58139ff"] ;
55 -> 57 ;
58 [label=<hsv_cervix_v_std &le; 87.567<br/>gini = 0.117<br/>samples = 32<br/>value = [2, 30]<br/>class = 1>, fillcolor="#399de5ee"] ;
44 -> 58 ;
59 [label=<fit_ellipse_goodness &le; 358.059<br/>gini = 0.062<br/>samples = 31<br/>value = [1, 30]<br/>class = 1>, fillcolor="#399de5f6"] ;
58 -> 59 ;
60 [label=<gini = 0.0<br/>samples = 30<br/>value = [0, 30]<br/>class = 1>, fillcolor="#399de5ff"] ;
59 -> 60 ;
61 [label=<gini = 0.0<br/>samples = 1<br/>value = [1, 0]<br/>class = 0>, fillcolor="#e58139ff"] ;
59 -> 61 ;
62 [label=<gini = 0.0<br/>samples = 1<br/>value = [1, 0]<br/>class = 0>, fillcolor="#e58139ff"] ;
58 -> 62 ;
63 [label=<gini = 0.0<br/>samples = 25<br/>value = [0, 25]<br/>class = 1>, fillcolor="#399de5ff"] ;
43 -> 63 ;
64 [label=<gini = 0.0<br/>samples = 5<br/>value = [5, 0]<br/>class = 0>, fillcolor="#e58139ff"] ;
42 -> 64 ;
65 [label=<walls_specularities_area &le; 0.004<br/>gini = 0.375<br/>samples = 8<br/>value = [6, 2]<br/>class = 0>, fillcolor="#e58139aa"] ;
19 -> 65 ;
66 [label=<gini = 0.0<br/>samples = 5<br/>value = [5, 0]<br/>class = 0>, fillcolor="#e58139ff"] ;
65 -> 66 ;
67 [label=<walls_specularities_area &le; 0.006<br/>gini = 0.444<br/>samples = 3<br/>value = [1, 2]<br/>class = 1>, fillcolor="#399de57f"] ;
65 -> 67 ;
68 [label=<gini = 0.0<br/>samples = 2<br/>value = [0, 2]<br/>class = 1>, fillcolor="#399de5ff"] ;
67 -> 68 ;
69 [label=<gini = 0.0<br/>samples = 1<br/>value = [1, 0]<br/>class = 0>, fillcolor="#e58139ff"] ;
67 -> 69 ;
70 [label=<hsv_total_s_std &le; 64.671<br/>gini = 0.426<br/>samples = 13<br/>value = [9, 4]<br/>class = 0>, fillcolor="#e581398e"] ;
18 -> 70 ;
71 [label=<rgb_cervix_r_mean_minus_std &le; 150.148<br/>gini = 0.18<br/>samples = 10<br/>value = [9, 1]<br/>class = 0>, fillcolor="#e58139e3"] ;
70 -> 71 ;
72 [label=<gini = 0.0<br/>samples = 9<br/>value = [9, 0]<br/>class = 0>, fillcolor="#e58139ff"] ;
71 -> 72 ;
73 [label=<gini = 0.0<br/>samples = 1<br/>value = [0, 1]<br/>class = 1>, fillcolor="#399de5ff"] ;
71 -> 73 ;
74 [label=<gini = 0.0<br/>samples = 3<br/>value = [0, 3]<br/>class = 1>, fillcolor="#399de5ff"] ;
70 -> 74 ;
}
