digraph Tree {
node [shape=box, style="filled, rounded", color="black", fontname=helvetica] ;
edge [fontname=helvetica] ;
0 [label=<dist_to_center_cervix &le; 0.648<br/>gini = 0.46<br/>samples = 287<br/>value = [103, 184]<br/>class = 1>, fillcolor="#399de570"] ;
1 [label=<hsv_cervix_s_std &le; 30.599<br/>gini = 0.408<br/>samples = 235<br/>value = [67, 168]<br/>class = 1>, fillcolor="#399de599"] ;
0 -> 1 [labeldistance=2.5, labelangle=45, headlabel="True"] ;
2 [label=<rgb_cervix_b_std &le; 31.873<br/>gini = 0.254<br/>samples = 127<br/>value = [19, 108]<br/>class = 1>, fillcolor="#399de5d2"] ;
1 -> 2 ;
3 [label=<fit_circle_total &le; 0.465<br/>gini = 0.433<br/>samples = 60<br/>value = [19, 41]<br/>class = 1>, fillcolor="#399de589"] ;
2 -> 3 ;
4 [label=<area_h_max_diff &le; 0.097<br/>gini = 0.219<br/>samples = 8<br/>value = [7, 1]<br/>class = 0>, fillcolor="#e58139db"] ;
3 -> 4 ;
5 [label=<gini = 0.0<br/>samples = 1<br/>value = [0, 1]<br/>class = 1>, fillcolor="#399de5ff"] ;
4 -> 5 ;
6 [label=<gini = 0.0<br/>samples = 7<br/>value = [7, 0]<br/>class = 0>, fillcolor="#e58139ff"] ;
4 -> 6 ;
7 [label=<fit_circle_rate &le; 0.516<br/>gini = 0.355<br/>samples = 52<br/>value = [12, 40]<br/>class = 1>, fillcolor="#399de5b3"] ;
3 -> 7 ;
8 [label=<gini = 0.0<br/>samples = 3<br/>value = [3, 0]<br/>class = 0>, fillcolor="#e58139ff"] ;
7 -> 8 ;
9 [label=<fit_circle_rate &le; 0.742<br/>gini = 0.3<br/>samples = 49<br/>value = [9, 40]<br/>class = 1>, fillcolor="#399de5c6"] ;
7 -> 9 ;
10 [label=<hsv_cervix_h_mean &le; 5.037<br/>gini = 0.254<br/>samples = 47<br/>value = [7, 40]<br/>class = 1>, fillcolor="#399de5d2"] ;
9 -> 10 ;
11 [label=<hsv_cervix_s_mean &le; 169.937<br/>gini = 0.457<br/>samples = 17<br/>value = [6, 11]<br/>class = 1>, fillcolor="#399de574"] ;
10 -> 11 ;
12 [label=<hsv_total_s_std &le; 28.517<br/>gini = 0.26<br/>samples = 13<br/>value = [2, 11]<br/>class = 1>, fillcolor="#399de5d1"] ;
11 -> 12 ;
13 [label=<gini = 0.0<br/>samples = 2<br/>value = [2, 0]<br/>class = 0>, fillcolor="#e58139ff"] ;
12 -> 13 ;
14 [label=<gini = 0.0<br/>samples = 11<br/>value = [0, 11]<br/>class = 1>, fillcolor="#399de5ff"] ;
12 -> 14 ;
15 [label=<gini = 0.0<br/>samples = 4<br/>value = [4, 0]<br/>class = 0>, fillcolor="#e58139ff"] ;
11 -> 15 ;
16 [label=<hsv_cervix_h_std &le; 3.105<br/>gini = 0.064<br/>samples = 30<br/>value = [1, 29]<br/>class = 1>, fillcolor="#399de5f6"] ;
10 -> 16 ;
17 [label=<gini = 0.0<br/>samples = 29<br/>value = [0, 29]<br/>class = 1>, fillcolor="#399de5ff"] ;
16 -> 17 ;
18 [label=<gini = 0.0<br/>samples = 1<br/>value = [1, 0]<br/>class = 0>, fillcolor="#e58139ff"] ;
16 -> 18 ;
19 [label=<gini = 0.0<br/>samples = 2<br/>value = [2, 0]<br/>class = 0>, fillcolor="#e58139ff"] ;
9 -> 19 ;
20 [label=<gini = 0.0<br/>samples = 67<br/>value = [0, 67]<br/>class = 1>, fillcolor="#399de5ff"] ;
2 -> 20 ;
21 [label=<fit_circle_rate &le; 0.601<br/>gini = 0.494<br/>samples = 108<br/>value = [48, 60]<br/>class = 1>, fillcolor="#399de533"] ;
1 -> 21 ;
22 [label=<os_specularities_area &le; 0.034<br/>gini = 0.484<br/>samples = 61<br/>value = [36, 25]<br/>class = 0>, fillcolor="#e581394e"] ;
21 -> 22 ;
23 [label=<hsv_total_s_std &le; 42.452<br/>gini = 0.459<br/>samples = 56<br/>value = [36, 20]<br/>class = 0>, fillcolor="#e5813971"] ;
22 -> 23 ;
24 [label=<hsv_total_s_mean &le; 126.625<br/>gini = 0.493<br/>samples = 25<br/>value = [11, 14]<br/>class = 1>, fillcolor="#399de537"] ;
23 -> 24 ;
25 [label=<hsv_total_v_std &le; 66.843<br/>gini = 0.219<br/>samples = 8<br/>value = [7, 1]<br/>class = 0>, fillcolor="#e58139db"] ;
24 -> 25 ;
26 [label=<gini = 0.0<br/>samples = 7<br/>value = [7, 0]<br/>class = 0>, fillcolor="#e58139ff"] ;
25 -> 26 ;
27 [label=<gini = 0.0<br/>samples = 1<br/>value = [0, 1]<br/>class = 1>, fillcolor="#399de5ff"] ;
25 -> 27 ;
28 [label=<rgb_cervix_b_mean &le; 71.631<br/>gini = 0.36<br/>samples = 17<br/>value = [4, 13]<br/>class = 1>, fillcolor="#399de5b1"] ;
24 -> 28 ;
29 [label=<gini = 0.0<br/>samples = 11<br/>value = [0, 11]<br/>class = 1>, fillcolor="#399de5ff"] ;
28 -> 29 ;
30 [label=<rgb_cervix_g_std &le; 35.815<br/>gini = 0.444<br/>samples = 6<br/>value = [4, 2]<br/>class = 0>, fillcolor="#e581397f"] ;
28 -> 30 ;
31 [label=<gini = 0.0<br/>samples = 4<br/>value = [4, 0]<br/>class = 0>, fillcolor="#e58139ff"] ;
30 -> 31 ;
32 [label=<gini = 0.0<br/>samples = 2<br/>value = [0, 2]<br/>class = 1>, fillcolor="#399de5ff"] ;
30 -> 32 ;
33 [label=<rgb_total_r_std &le; 73.834<br/>gini = 0.312<br/>samples = 31<br/>value = [25, 6]<br/>class = 0>, fillcolor="#e58139c2"] ;
23 -> 33 ;
34 [label=<rgb_total_r_mean_minus_std &le; -10.214<br/>gini = 0.198<br/>samples = 27<br/>value = [24, 3]<br/>class = 0>, fillcolor="#e58139df"] ;
33 -> 34 ;
35 [label=<gini = 0.0<br/>samples = 2<br/>value = [0, 2]<br/>class = 1>, fillcolor="#399de5ff"] ;
34 -> 35 ;
36 [label=<fit_ellipse_goodness &le; 359.942<br/>gini = 0.077<br/>samples = 25<br/>value = [24, 1]<br/>class = 0>, fillcolor="#e58139f4"] ;
34 -> 36 ;
37 [label=<gini = 0.0<br/>samples = 24<br/>value = [24, 0]<br/>class = 0>, fillcolor="#e58139ff"] ;
36 -> 37 ;
38 [label=<gini = 0.0<br/>samples = 1<br/>value = [0, 1]<br/>class = 1>, fillcolor="#399de5ff"] ;
36 -> 38 ;
39 [label=<rgb_total_r_std &le; 78.48<br/>gini = 0.375<br/>samples = 4<br/>value = [1, 3]<br/>class = 1>, fillcolor="#399de5aa"] ;
33 -> 39 ;
40 [label=<gini = 0.0<br/>samples = 3<br/>value = [0, 3]<br/>class = 1>, fillcolor="#399de5ff"] ;
39 -> 40 ;
41 [label=<gini = 0.0<br/>samples = 1<br/>value = [1, 0]<br/>class = 0>, fillcolor="#e58139ff"] ;
39 -> 41 ;
42 [label=<gini = 0.0<br/>samples = 5<br/>value = [0, 5]<br/>class = 1>, fillcolor="#399de5ff"] ;
22 -> 42 ;
43 [label=<hsv_total_v_mean &le; 48.27<br/>gini = 0.38<br/>samples = 47<br/>value = [12, 35]<br/>class = 1>, fillcolor="#399de5a8"] ;
21 -> 43 ;
44 [label=<gini = 0.0<br/>samples = 5<br/>value = [5, 0]<br/>class = 0>, fillcolor="#e58139ff"] ;
43 -> 44 ;
45 [label=<cervix_artifacts_area &le; 0.12<br/>gini = 0.278<br/>samples = 42<br/>value = [7, 35]<br/>class = 1>, fillcolor="#399de5cc"] ;
43 -> 45 ;
46 [label=<area_h_max_diff &le; 0.284<br/>gini = 0.193<br/>samples = 37<br/>value = [4, 33]<br/>class = 1>, fillcolor="#399de5e0"] ;
45 -> 46 ;
47 [label=<rgb_cervix_g_mean &le; 176.803<br/>gini = 0.064<br/>samples = 30<br/>value = [1, 29]<br/>class = 1>, fillcolor="#399de5f6"] ;
46 -> 47 ;
48 [label=<gini = 0.0<br/>samples = 29<br/>value = [0, 29]<br/>class = 1>, fillcolor="#399de5ff"] ;
47 -> 48 ;
49 [label=<gini = 0.0<br/>samples = 1<br/>value = [1, 0]<br/>class = 0>, fillcolor="#e58139ff"] ;
47 -> 49 ;
50 [label=<hsv_cervix_h_std &le; 2.845<br/>gini = 0.49<br/>samples = 7<br/>value = [3, 4]<br/>class = 1>, fillcolor="#399de540"] ;
46 -> 50 ;
51 [label=<gini = 0.0<br/>samples = 3<br/>value = [3, 0]<br/>class = 0>, fillcolor="#e58139ff"] ;
50 -> 51 ;
52 [label=<gini = 0.0<br/>samples = 4<br/>value = [0, 4]<br/>class = 1>, fillcolor="#399de5ff"] ;
50 -> 52 ;
53 [label=<hsv_total_h_mean &le; 4.412<br/>gini = 0.48<br/>samples = 5<br/>value = [3, 2]<br/>class = 0>, fillcolor="#e5813955"] ;
45 -> 53 ;
54 [label=<gini = 0.0<br/>samples = 2<br/>value = [0, 2]<br/>class = 1>, fillcolor="#399de5ff"] ;
53 -> 54 ;
55 [label=<gini = 0.0<br/>samples = 3<br/>value = [3, 0]<br/>class = 0>, fillcolor="#e58139ff"] ;
53 -> 55 ;
56 [label=<rgb_cervix_b_mean_minus_std &le; 96.237<br/>gini = 0.426<br/>samples = 52<br/>value = [36, 16]<br/>class = 0>, fillcolor="#e581398e"] ;
0 -> 56 [labeldistance=2.5, labelangle=-45, headlabel="False"] ;
57 [label=<os_specularities_area &le; 0.037<br/>gini = 0.295<br/>samples = 39<br/>value = [32, 7]<br/>class = 0>, fillcolor="#e58139c7"] ;
56 -> 57 ;
58 [label=<speculum_area &le; 0.3<br/>gini = 0.266<br/>samples = 38<br/>value = [32, 6]<br/>class = 0>, fillcolor="#e58139cf"] ;
57 -> 58 ;
59 [label=<artifacts_area &le; 0.112<br/>gini = 0.42<br/>samples = 20<br/>value = [14, 6]<br/>class = 0>, fillcolor="#e5813992"] ;
58 -> 59 ;
60 [label=<rgb_total_g_std &le; 72.431<br/>gini = 0.346<br/>samples = 18<br/>value = [14, 4]<br/>class = 0>, fillcolor="#e58139b6"] ;
59 -> 60 ;
61 [label=<walls_area &le; 0.915<br/>gini = 0.219<br/>samples = 16<br/>value = [14, 2]<br/>class = 0>, fillcolor="#e58139db"] ;
60 -> 61 ;
62 [label=<gini = 0.0<br/>samples = 11<br/>value = [11, 0]<br/>class = 0>, fillcolor="#e58139ff"] ;
61 -> 62 ;
63 [label=<hsv_total_s_mean &le; 207.715<br/>gini = 0.48<br/>samples = 5<br/>value = [3, 2]<br/>class = 0>, fillcolor="#e5813955"] ;
61 -> 63 ;
64 [label=<rgb_total_b_mean_plus_std &le; 200.106<br/>gini = 0.444<br/>samples = 3<br/>value = [1, 2]<br/>class = 1>, fillcolor="#399de57f"] ;
63 -> 64 ;
65 [label=<gini = 0.0<br/>samples = 2<br/>value = [0, 2]<br/>class = 1>, fillcolor="#399de5ff"] ;
64 -> 65 ;
66 [label=<gini = 0.0<br/>samples = 1<br/>value = [1, 0]<br/>class = 0>, fillcolor="#e58139ff"] ;
64 -> 66 ;
67 [label=<gini = 0.0<br/>samples = 2<br/>value = [2, 0]<br/>class = 0>, fillcolor="#e58139ff"] ;
63 -> 67 ;
68 [label=<gini = 0.0<br/>samples = 2<br/>value = [0, 2]<br/>class = 1>, fillcolor="#399de5ff"] ;
60 -> 68 ;
69 [label=<gini = 0.0<br/>samples = 2<br/>value = [0, 2]<br/>class = 1>, fillcolor="#399de5ff"] ;
59 -> 69 ;
70 [label=<gini = 0.0<br/>samples = 18<br/>value = [18, 0]<br/>class = 0>, fillcolor="#e58139ff"] ;
58 -> 70 ;
71 [label=<gini = 0.0<br/>samples = 1<br/>value = [0, 1]<br/>class = 1>, fillcolor="#399de5ff"] ;
57 -> 71 ;
72 [label=<rgb_cervix_r_std &le; 50.129<br/>gini = 0.426<br/>samples = 13<br/>value = [4, 9]<br/>class = 1>, fillcolor="#399de58e"] ;
56 -> 72 ;
73 [label=<gini = 0.0<br/>samples = 8<br/>value = [0, 8]<br/>class = 1>, fillcolor="#399de5ff"] ;
72 -> 73 ;
74 [label=<rgb_cervix_b_mean &le; 171.963<br/>gini = 0.32<br/>samples = 5<br/>value = [4, 1]<br/>class = 0>, fillcolor="#e58139bf"] ;
72 -> 74 ;
75 [label=<gini = 0.0<br/>samples = 1<br/>value = [0, 1]<br/>class = 1>, fillcolor="#399de5ff"] ;
74 -> 75 ;
76 [label=<gini = 0.0<br/>samples = 4<br/>value = [4, 0]<br/>class = 0>, fillcolor="#e58139ff"] ;
74 -> 76 ;
}
